{
    "data_obj": {
        "features": [
            [
                0.07974299693968682,
                1.0,
                0.0,
                0.0
            ],
            [
                0.10010850153783456,
                0.0,
                0.0,
                0.0
            ],
            [
                0.022330085057893065,
                0.0,
                4.0,
                0.0
            ],
            [
                0.17312838085929844,
                0.0,
                0.0,
                0.0
            ],
            [
                0.23383765906812837,
                0.0,
                1.0,
                0.0
            ],
            [
                0.3747888361662637,
                1.0,
                0.0,
                0.0
            ],
            [
                0.08630858185931072,
                0.0,
                3.0,
                0.0
            ],
            [
                0.5863262307575433,
                1.0,
                1.0,
                1.0
            ],
            [
                0.6133829245443816,
                1.0,
                0.0,
                1.0
            ],
            [
                0.42455691025396586,
                0.0,
                0.0,
                0.0
            ]
        ],
        "transitions": [
            [
                [
                    [
                        0.4887111054585287,
                        0.5112888945414713
                    ],
                    [
                        0.5486365360506912,
                        0.4513634639493088
                    ]
                ],
                [
                    [
                        0.3099715974178494,
                        0.6900284025821506
                    ],
                    [
                        0.5250420517544867,
                        0.4749579482455133
                    ]
                ]
            ],
            [
                [
                    [
                        0.4860638380209996,
                        0.5139361619790004
                    ],
                    [
                        0.5512590546107323,
                        0.4487409453892677
                    ]
                ],
                [
                    [
                        0.3132806755133585,
                        0.6867193244866415
                    ],
                    [
                        0.5211938284001627,
                        0.4788061715998373
                    ]
                ]
            ],
            [
                [
                    [
                        0.5046035452365853,
                        0.49539645476341465
                    ],
                    [
                        0.5328489409093884,
                        0.4671510590906116
                    ]
                ],
                [
                    [
                        0.35478030439916375,
                        0.6452196956008363
                    ],
                    [
                        0.47454505953938575,
                        0.5254549404606143
                    ]
                ]
            ],
            [
                [
                    [
                        0.48713692230006955,
                        0.5128630776999304
                    ],
                    [
                        0.5501962524886346,
                        0.4498037475113654
                    ]
                ],
                [
                    [
                        0.32362075768020215,
                        0.6763792423197978
                    ],
                    [
                        0.5092943289754724,
                        0.49070567102452756
                    ]
                ]
            ],
            [
                [
                    [
                        0.4962151950886361,
                        0.5037848049113639
                    ],
                    [
                        0.5411913088436542,
                        0.4588086911563458
                    ]
                ],
                [
                    [
                        0.33330054095813655,
                        0.6666994590418635
                    ],
                    [
                        0.4983236937500991,
                        0.5016763062499009
                    ]
                ]
            ],
            [
                [
                    [
                        0.505576098226103,
                        0.4944239017738969
                    ],
                    [
                        0.5318803624374908,
                        0.4681196375625092
                    ]
                ],
                [
                    [
                        0.3267688222695331,
                        0.6732311777304669
                    ],
                    [
                        0.5057087065814868,
                        0.4942912934185132
                    ]
                ]
            ],
            [
                [
                    [
                        0.5021520786594145,
                        0.49784792134058553
                    ],
                    [
                        0.5352891371225905,
                        0.4647108628774095
                    ]
                ],
                [
                    [
                        0.3500302014585709,
                        0.6499697985414291
                    ],
                    [
                        0.4797377171351806,
                        0.5202622828648193
                    ]
                ]
            ],
            [
                [
                    [
                        0.5315537361855731,
                        0.46844626381442683
                    ],
                    [
                        0.5059040008737119,
                        0.4940959991262881
                    ]
                ],
                [
                    [
                        0.40168614336142117,
                        0.5983138566385788
                    ],
                    [
                        0.4251772514591957,
                        0.5748227485408043
                    ]
                ]
            ],
            [
                [
                    [
                        0.542186864916957,
                        0.457813135083043
                    ],
                    [
                        0.49521274319693837,
                        0.5047872568030616
                    ]
                ],
                [
                    [
                        0.38086893296573554,
                        0.6191310670342645
                    ],
                    [
                        0.4466690568243722,
                        0.5533309431756278
                    ]
                ]
            ],
            [
                [
                    [
                        0.49649922853460504,
                        0.503500771465395
                    ],
                    [
                        0.5409091749467194,
                        0.4590908250532806
                    ]
                ],
                [
                    [
                        0.3160171734038,
                        0.6839828265962
                    ],
                    [
                        0.518026246754863,
                        0.481973753245137
                    ]
                ]
            ]
        ]
    },
    "ground_truth": [
        {
            "features": {
                "age": 0.07974299693968682,
                "sex": 1.0,
                "race": 0,
                "pre_existing": 0.0
            },
            "weights": {
                "age_weight_treat": -0.2195879210972816,
                "sex_weight_treat": 0.008319498833243878,
                "race_weights_treat": [
                    0.009443187944504251,
                    -0.015833000308728376,
                    -0.0808298201299823,
                    -0.13384356633337563,
                    -0.1947629924705927
                ],
                "pre_existing_weight_treat": -0.25163691150882767,
                "age_weight_notreat": -0.14206342096219843,
                "sex_weight_notreat": 0.045352599079811456,
                "race_weights_notreat": [
                    -0.038860782839228426,
                    0.011484370289340965,
                    -0.08713688024906201,
                    -0.03920617905163899,
                    -0.07640996406486439
                ],
                "pre_existing_weight_notreat": -0.14262258863411753
            },
            "transition_matrix": [
                [
                    [
                        0.4887111054585287,
                        0.5112888945414713
                    ],
                    [
                        0.5486365360506912,
                        0.4513634639493088
                    ]
                ],
                [
                    [
                        0.3099715974178494,
                        0.6900284025821506
                    ],
                    [
                        0.5250420517544867,
                        0.4749579482455133
                    ]
                ]
            ]
        },
        {
            "features": {
                "age": 0.10010850153783456,
                "sex": 0.0,
                "race": 0,
                "pre_existing": 0.0
            },
            "weights": {
                "age_weight_treat": -0.20829777889752984,
                "sex_weight_treat": 0.07636828414433383,
                "race_weights_treat": [
                    0.0056785192394288725,
                    -0.06426024333168237,
                    -0.13488725476519198,
                    -0.11534937747292778,
                    -0.19214485318911673
                ],
                "pre_existing_weight_treat": -0.32424579358459166,
                "age_weight_notreat": -0.10716527252990508,
                "sex_weight_notreat": 0.044186215184203737,
                "race_weights_notreat": [
                    0.016487244880329432,
                    -0.036293361655239,
                    -0.09182199129060148,
                    -0.1192573621455387,
                    -0.1367802065062076
                ],
                "pre_existing_weight_notreat": -0.18973647407892041
            },
            "transition_matrix": [
                [
                    [
                        0.4860638380209996,
                        0.5139361619790004
                    ],
                    [
                        0.5512590546107323,
                        0.4487409453892677
                    ]
                ],
                [
                    [
                        0.3132806755133585,
                        0.6867193244866415
                    ],
                    [
                        0.5211938284001627,
                        0.4788061715998373
                    ]
                ]
            ]
        },
        {
            "features": {
                "age": 0.022330085057893065,
                "sex": 0.0,
                "race": 4,
                "pre_existing": 0.0
            },
            "weights": {
                "age_weight_treat": -0.18186992342072034,
                "sex_weight_treat": 0.024366637453687404,
                "race_weights_treat": [
                    -0.03410403558552773,
                    -0.09564085362009594,
                    -0.11011237072738435,
                    -0.14467426552032864,
                    -0.19784669406026678
                ],
                "pre_existing_weight_treat": -0.29356409570752184,
                "age_weight_notreat": -0.12954571404535725,
                "sex_weight_notreat": -0.02514209671557312,
                "race_weights_notreat": [
                    0.03878567926762226,
                    0.022757657957538955,
                    -0.08615844272184103,
                    -0.06484072740175946,
                    -0.0655219344858234
                ],
                "pre_existing_weight_notreat": -0.13001659252270853
            },
            "transition_matrix": [
                [
                    [
                        0.5046035452365853,
                        0.49539645476341465
                    ],
                    [
                        0.5328489409093884,
                        0.4671510590906116
                    ]
                ],
                [
                    [
                        0.35478030439916375,
                        0.6452196956008363
                    ],
                    [
                        0.47454505953938575,
                        0.5254549404606143
                    ]
                ]
            ]
        },
        {
            "features": {
                "age": 0.17312838085929844,
                "sex": 0.0,
                "race": 0,
                "pre_existing": 0.0
            },
            "weights": {
                "age_weight_treat": -0.16245431582048253,
                "sex_weight_treat": 0.019422296057877087,
                "race_weights_treat": [
                    -0.03469294848752269,
                    -0.06952319265889026,
                    -0.12591441022763755,
                    -0.11455475124754952,
                    -0.24973119354256795
                ],
                "pre_existing_weight_treat": -0.26930313158628205,
                "age_weight_notreat": -0.10493635094812653,
                "sex_weight_notreat": 0.0408697395442746,
                "race_weights_notreat": [
                    0.019631126823540637,
                    0.005071700034316787,
                    -0.06006212898971999,
                    -0.02680678519233219,
                    -0.09270869977615448
                ],
                "pre_existing_weight_notreat": -0.13388321326720687
            },
            "transition_matrix": [
                [
                    [
                        0.48713692230006955,
                        0.5128630776999304
                    ],
                    [
                        0.5501962524886346,
                        0.4498037475113654
                    ]
                ],
                [
                    [
                        0.32362075768020215,
                        0.6763792423197978
                    ],
                    [
                        0.5092943289754724,
                        0.49070567102452756
                    ]
                ]
            ]
        },
        {
            "features": {
                "age": 0.23383765906812837,
                "sex": 0.0,
                "race": 1,
                "pre_existing": 0.0
            },
            "weights": {
                "age_weight_treat": -0.1989577662521989,
                "sex_weight_treat": 0.05724569574914731,
                "race_weights_treat": [
                    0.019552952877091093,
                    -0.0601814318082019,
                    -0.11565439859516752,
                    -0.1615162188724239,
                    -0.151165458071718
                ],
                "pre_existing_weight_treat": -0.31056299460472253,
                "age_weight_notreat": -0.0952236427371146,
                "sex_weight_notreat": 0.05392433478050837,
                "race_weights_notreat": [
                    -0.005967212333459093,
                    -0.012593617485003556,
                    -0.057569313891900814,
                    -0.061782454085413,
                    -0.12782456445269463
                ],
                "pre_existing_weight_notreat": -0.19509028693772237
            },
            "transition_matrix": [
                [
                    [
                        0.4962151950886361,
                        0.5037848049113639
                    ],
                    [
                        0.5411913088436542,
                        0.4588086911563458
                    ]
                ],
                [
                    [
                        0.33330054095813655,
                        0.6666994590418635
                    ],
                    [
                        0.4983236937500991,
                        0.5016763062499009
                    ]
                ]
            ]
        },
        {
            "features": {
                "age": 0.3747888361662637,
                "sex": 1.0,
                "race": 0,
                "pre_existing": 0.0
            },
            "weights": {
                "age_weight_treat": -0.18306862170377278,
                "sex_weight_treat": 0.009571251661238712,
                "race_weights_treat": [
                    -0.018123357361812364,
                    -0.029504116954863782,
                    -0.09868718458009978,
                    -0.16832121028816202,
                    -0.15946584243383902
                ],
                "pre_existing_weight_treat": -0.27689269641554426,
                "age_weight_notreat": -0.14066732896301792,
                "sex_weight_notreat": -0.013406211579304609,
                "race_weights_notreat": [
                    -0.006178561562277529,
                    0.005164398879291838,
                    -0.04377816212690944,
                    -0.09939042725547259,
                    -0.08573640742114941
                ],
                "pre_existing_weight_notreat": -0.12077006981554093
            },
            "transition_matrix": [
                [
                    [
                        0.505576098226103,
                        0.4944239017738969
                    ],
                    [
                        0.5318803624374908,
                        0.4681196375625092
                    ]
                ],
                [
                    [
                        0.3267688222695331,
                        0.6732311777304669
                    ],
                    [
                        0.5057087065814868,
                        0.4942912934185132
                    ]
                ]
            ]
        },
        {
            "features": {
                "age": 0.08630858185931072,
                "sex": 0.0,
                "race": 3,
                "pre_existing": 0.0
            },
            "weights": {
                "age_weight_treat": -0.1914063447437787,
                "sex_weight_treat": 0.08853268262751396,
                "race_weights_treat": [
                    0.019197029553181963,
                    -0.00046415179659825556,
                    -0.08333754498359285,
                    -0.16457353244083214,
                    -0.22923641388036756
                ],
                "pre_existing_weight_treat": -0.3338930985570785,
                "age_weight_notreat": -0.12031392245193206,
                "sex_weight_notreat": 0.04809979379999574,
                "race_weights_notreat": [
                    0.026509609523930652,
                    -0.06208510392617948,
                    -0.0877756450367495,
                    -0.04822424377204425,
                    -0.13332255567749954
                ],
                "pre_existing_weight_notreat": -0.14812834091094948
            },
            "transition_matrix": [
                [
                    [
                        0.5021520786594145,
                        0.49784792134058553
                    ],
                    [
                        0.5352891371225905,
                        0.4647108628774095
                    ]
                ],
                [
                    [
                        0.3500302014585709,
                        0.6499697985414291
                    ],
                    [
                        0.4797377171351806,
                        0.5202622828648193
                    ]
                ]
            ]
        },
        {
            "features": {
                "age": 0.5863262307575433,
                "sex": 1.0,
                "race": 1,
                "pre_existing": 1.0
            },
            "weights": {
                "age_weight_treat": -0.18750964979044002,
                "sex_weight_treat": 0.06272489720512688,
                "race_weights_treat": [
                    0.005438324971777209,
                    -0.06440851342825404,
                    -0.13940915149431862,
                    -0.1828918170794901,
                    -0.22075105872075754
                ],
                "pre_existing_weight_treat": -0.289930143216641,
                "age_weight_notreat": -0.057241575984785256,
                "sex_weight_notreat": -0.001346338327089809,
                "race_weights_notreat": [
                    0.006564200122588279,
                    0.015938907568061145,
                    -0.07986004986186292,
                    -0.08210141503010823,
                    -0.07466351286469593
                ],
                "pre_existing_weight_notreat": -0.15741323058000808
            },
            "transition_matrix": [
                [
                    [
                        0.5315537361855731,
                        0.46844626381442683
                    ],
                    [
                        0.5059040008737119,
                        0.4940959991262881
                    ]
                ],
                [
                    [
                        0.40168614336142117,
                        0.5983138566385788
                    ],
                    [
                        0.4251772514591957,
                        0.5748227485408043
                    ]
                ]
            ]
        },
        {
            "features": {
                "age": 0.6133829245443816,
                "sex": 1.0,
                "race": 0,
                "pre_existing": 1.0
            },
            "weights": {
                "age_weight_treat": -0.18253109490121752,
                "sex_weight_treat": 0.07234163581899548,
                "race_weights_treat": [
                    -0.011104942587685539,
                    -0.02374521862145662,
                    -0.13691050493359194,
                    -0.11708873654981095,
                    -0.19799898469275168
                ],
                "pre_existing_weight_treat": -0.2634135541696735,
                "age_weight_notreat": -0.09309962685698048,
                "sex_weight_notreat": 0.0006469753329557265,
                "race_weights_notreat": [
                    -0.041509583680818245,
                    0.01215041132005579,
                    -0.018835565171597846,
                    -0.05316160527405403,
                    -0.040391367263217445
                ],
                "pre_existing_weight_notreat": -0.12118128263985344
            },
            "transition_matrix": [
                [
                    [
                        0.542186864916957,
                        0.457813135083043
                    ],
                    [
                        0.49521274319693837,
                        0.5047872568030616
                    ]
                ],
                [
                    [
                        0.38086893296573554,
                        0.6191310670342645
                    ],
                    [
                        0.4466690568243722,
                        0.5533309431756278
                    ]
                ]
            ]
        },
        {
            "features": {
                "age": 0.42455691025396586,
                "sex": 0.0,
                "race": 0,
                "pre_existing": 0.0
            },
            "weights": {
                "age_weight_treat": -0.1657657562379743,
                "sex_weight_treat": 0.0016129206695016801,
                "race_weights_treat": [
                    0.04251324896139862,
                    -0.04068230834377789,
                    -0.11780193935316921,
                    -0.16613291540856734,
                    -0.15980886273393297
                ],
                "pre_existing_weight_treat": -0.25164783907964444,
                "age_weight_notreat": -0.10425880024763881,
                "sex_weight_notreat": 0.0365261465349683,
                "race_weights_notreat": [
                    0.008267108786140467,
                    0.020987165961020893,
                    -0.053201242594325064,
                    -0.11706802771062289,
                    -0.06306026629260376
                ],
                "pre_existing_weight_notreat": -0.15884307767911626
            },
            "transition_matrix": [
                [
                    [
                        0.49649922853460504,
                        0.503500771465395
                    ],
                    [
                        0.5409091749467194,
                        0.4590908250532806
                    ]
                ],
                [
                    [
                        0.3160171734038,
                        0.6839828265962
                    ],
                    [
                        0.518026246754863,
                        0.481973753245137
                    ]
                ]
            ]
        }
    ]
}