{
    "data_obj": {
        "features": [
            [
                0.17943402373982895,
                1.0,
                2.0,
                0.0
            ],
            [
                0.2835978565701226,
                1.0,
                0.0,
                0.0
            ],
            [
                0.38213405861245364,
                1.0,
                0.0,
                0.0
            ],
            [
                0.1469025143687136,
                1.0,
                0.0,
                0.0
            ],
            [
                0.17744055885827212,
                0.0,
                3.0,
                0.0
            ],
            [
                0.5159464468687203,
                1.0,
                3.0,
                1.0
            ],
            [
                0.2915850213953008,
                0.0,
                3.0,
                0.0
            ],
            [
                0.5137331502664209,
                1.0,
                0.0,
                1.0
            ],
            [
                0.03864420200988547,
                0.0,
                0.0,
                0.0
            ],
            [
                0.5575270214926723,
                0.0,
                1.0,
                1.0
            ],
            [
                0.16343102745887172,
                1.0,
                0.0,
                0.0
            ],
            [
                0.25666583970321677,
                0.0,
                1.0,
                0.0
            ],
            [
                0.19856279758993584,
                0.0,
                1.0,
                0.0
            ],
            [
                0.1857604565810124,
                0.0,
                0.0,
                0.0
            ],
            [
                0.3376246109188083,
                0.0,
                1.0,
                0.0
            ],
            [
                0.41061210814631577,
                1.0,
                3.0,
                0.0
            ],
            [
                0.3511927820505701,
                0.0,
                0.0,
                0.0
            ],
            [
                0.4553629451952221,
                1.0,
                1.0,
                0.0
            ],
            [
                0.4504950100634225,
                1.0,
                0.0,
                0.0
            ],
            [
                0.33901853037206714,
                1.0,
                0.0,
                0.0
            ]
        ],
        "transitions": [
            [
                [
                    [
                        0.495414000134771,
                        0.504585999865229
                    ],
                    [
                        0.5419870163750672,
                        0.4580129836249328
                    ]
                ],
                [
                    [
                        0.31031531012581104,
                        0.689684689874189
                    ],
                    [
                        0.52464142417715,
                        0.47535857582285
                    ]
                ]
            ],
            [
                [
                    [
                        0.4868406829826415,
                        0.5131593170173585
                    ],
                    [
                        0.5504896873366076,
                        0.44951031266339236
                    ]
                ],
                [
                    [
                        0.30458995435789293,
                        0.6954100456421071
                    ],
                    [
                        0.5313426511369163,
                        0.46865734886308374
                    ]
                ]
            ],
            [
                [
                    [
                        0.48896904986486533,
                        0.5110309501351347
                    ],
                    [
                        0.5483808921601183,
                        0.4516191078398817
                    ]
                ],
                [
                    [
                        0.31397775233015557,
                        0.6860222476698444
                    ],
                    [
                        0.5203856748128087,
                        0.47961432518719127
                    ]
                ]
            ],
            [
                [
                    [
                        0.49221628985501764,
                        0.5077837101449824
                    ],
                    [
                        0.545160926197757,
                        0.454839073802243
                    ]
                ],
                [
                    [
                        0.30435085387257077,
                        0.6956491461274292
                    ],
                    [
                        0.5316237987956778,
                        0.4683762012043222
                    ]
                ]
            ],
            [
                [
                    [
                        0.5125446146008633,
                        0.4874553853991367
                    ],
                    [
                        0.5249320574335052,
                        0.47506794256649476
                    ]
                ],
                [
                    [
                        0.3428496604382545,
                        0.6571503395617455
                    ],
                    [
                        0.48765770183963447,
                        0.5123422981603656
                    ]
                ]
            ],
            [
                [
                    [
                        0.5449805707564406,
                        0.45501942924355937
                    ],
                    [
                        0.4923980797348244,
                        0.5076019202651756
                    ]
                ],
                [
                    [
                        0.44805571334832883,
                        0.5519442866516712
                    ],
                    [
                        0.37954722287905945,
                        0.6204527771209405
                    ]
                ]
            ],
            [
                [
                    [
                        0.5132196250464747,
                        0.48678037495352533
                    ],
                    [
                        0.5242582330188826,
                        0.47574176698111736
                    ]
                ],
                [
                    [
                        0.3633488981871006,
                        0.6366511018128994
                    ],
                    [
                        0.46527057828247576,
                        0.5347294217175242
                    ]
                ]
            ],
            [
                [
                    [
                        0.5488438739174176,
                        0.4511561260825824
                    ],
                    [
                        0.48850188716921467,
                        0.5114981128307854
                    ]
                ],
                [
                    [
                        0.3996597532156868,
                        0.6003402467843132
                    ],
                    [
                        0.42724094673811575,
                        0.5727590532618843
                    ]
                ]
            ],
            [
                [
                    [
                        0.501078928166794,
                        0.498921071833206
                    ],
                    [
                        0.5363567901240448,
                        0.4636432098759552
                    ]
                ],
                [
                    [
                        0.31809927247831504,
                        0.681900727521685
                    ],
                    [
                        0.5156250543920379,
                        0.4843749456079621
                    ]
                ]
            ],
            [
                [
                    [
                        0.5425200106375414,
                        0.45747998936245854
                    ],
                    [
                        0.49487722274922996,
                        0.50512277725077
                    ]
                ],
                [
                    [
                        0.4176316712149075,
                        0.5823683287850925
                    ],
                    [
                        0.40914603083926115,
                        0.5908539691607388
                    ]
                ]
            ],
            [
                [
                    [
                        0.4873605100613623,
                        0.5126394899386377
                    ],
                    [
                        0.5499747642072859,
                        0.45002523579271414
                    ]
                ],
                [
                    [
                        0.3008703312572535,
                        0.6991296687427465
                    ],
                    [
                        0.5357282164200515,
                        0.46427178357994847
                    ]
                ]
            ],
            [
                [
                    [
                        0.49349530973536637,
                        0.5065046902646336
                    ],
                    [
                        0.543891790350494,
                        0.45610820964950605
                    ]
                ],
                [
                    [
                        0.33090150783677974,
                        0.6690984921632203
                    ],
                    [
                        0.5010276236942045,
                        0.4989723763057955
                    ]
                ]
            ],
            [
                [
                    [
                        0.5081503077554541,
                        0.49184969224454583
                    ],
                    [
                        0.5293153098600206,
                        0.4706846901399794
                    ]
                ],
                [
                    [
                        0.33142404016108096,
                        0.668575959838919
                    ],
                    [
                        0.5004378433346954,
                        0.49956215666530457
                    ]
                ]
            ],
            [
                [
                    [
                        0.48910742759181747,
                        0.5108925724081825
                    ],
                    [
                        0.5482437404511649,
                        0.45175625954883514
                    ]
                ],
                [
                    [
                        0.3142535133009159,
                        0.6857464866990841
                    ],
                    [
                        0.5200662114074962,
                        0.4799337885925038
                    ]
                ]
            ],
            [
                [
                    [
                        0.5163974135666054,
                        0.48360258643339454
                    ],
                    [
                        0.5210841936964848,
                        0.47891580630351516
                    ]
                ],
                [
                    [
                        0.3452937957584039,
                        0.6547062042415961
                    ],
                    [
                        0.48495228438066845,
                        0.5150477156193316
                    ]
                ]
            ],
            [
                [
                    [
                        0.4977170760769969,
                        0.5022829239230031
                    ],
                    [
                        0.5396992001612241,
                        0.4603007998387759
                    ]
                ],
                [
                    [
                        0.35008795279310656,
                        0.6499120472068934
                    ],
                    [
                        0.47967436361232224,
                        0.5203256363876778
                    ]
                ]
            ],
            [
                [
                    [
                        0.49748907475210746,
                        0.5025109252478925
                    ],
                    [
                        0.5399257611335774,
                        0.4600742388664226
                    ]
                ],
                [
                    [
                        0.323949941503512,
                        0.676050058496488
                    ],
                    [
                        0.5089185844621893,
                        0.4910814155378107
                    ]
                ]
            ],
            [
                [
                    [
                        0.5145346126189985,
                        0.4854653873810016
                    ],
                    [
                        0.5229451639992319,
                        0.47705483600076815
                    ]
                ],
                [
                    [
                        0.3367843461585791,
                        0.6632156538414209
                    ],
                    [
                        0.49441458332407057,
                        0.5055854166759295
                    ]
                ]
            ],
            [
                [
                    [
                        0.5199766750876024,
                        0.48002332491239763
                    ],
                    [
                        0.5175055274583279,
                        0.4824944725416721
                    ]
                ],
                [
                    [
                        0.29966454843734003,
                        0.70033545156266
                    ],
                    [
                        0.5371553209619947,
                        0.4628446790380053
                    ]
                ]
            ],
            [
                [
                    [
                        0.4899341020142879,
                        0.5100658979857121
                    ],
                    [
                        0.5474242721050229,
                        0.45257572789497713
                    ]
                ],
                [
                    [
                        0.3174780868838787,
                        0.6825219131161213
                    ],
                    [
                        0.516340637496788,
                        0.48365936250321195
                    ]
                ]
            ]
        ]
    },
    "ground_truth": [
        {
            "features": {
                "age": 0.17943402373982895,
                "sex": 1.0,
                "race": 2,
                "pre_existing": 0.0
            },
            "weights": {
                "age_weight_treat": -0.2407645159260961,
                "sex_weight_treat": 0.095924182856507,
                "race_weights_treat": [
                    0.019813571015706855,
                    -0.060111532983369666,
                    -0.05407722503043065,
                    -0.18087105068514542,
                    -0.19068535985363771
                ],
                "pre_existing_weight_treat": -0.3079325295770518,
                "age_weight_notreat": -0.10178404650419892,
                "sex_weight_notreat": 0.0022339031508569022,
                "race_weights_notreat": [
                    0.041004836318651566,
                    0.005002834634563972,
                    -0.015625868247345256,
                    -0.08939514666441838,
                    -0.06302278148726183
                ],
                "pre_existing_weight_notreat": -0.13742373227398907
            },
            "transition_matrix": [
                [
                    [
                        0.495414000134771,
                        0.504585999865229
                    ],
                    [
                        0.5419870163750672,
                        0.4580129836249328
                    ]
                ],
                [
                    [
                        0.31031531012581104,
                        0.689684689874189
                    ],
                    [
                        0.52464142417715,
                        0.47535857582285
                    ]
                ]
            ]
        },
        {
            "features": {
                "age": 0.2835978565701226,
                "sex": 1.0,
                "race": 0,
                "pre_existing": 0.0
            },
            "weights": {
                "age_weight_treat": -0.18278918295134786,
                "sex_weight_treat": 0.035876405715994784,
                "race_weights_treat": [
                    0.04149741995623815,
                    -0.01066534133069956,
                    -0.0815815120989048,
                    -0.10643635464485719,
                    -0.1848482972296403
                ],
                "pre_existing_weight_treat": -0.343434226431537,
                "age_weight_notreat": -0.13196944595998228,
                "sex_weight_notreat": 0.05881051179309332,
                "race_weights_notreat": [
                    -0.018734833235616102,
                    -0.04569184354155463,
                    -0.007874442191760228,
                    -0.09840213909896758,
                    -0.1399453370895735
                ],
                "pre_existing_weight_notreat": -0.1343287919419933
            },
            "transition_matrix": [
                [
                    [
                        0.4868406829826415,
                        0.5131593170173585
                    ],
                    [
                        0.5504896873366076,
                        0.44951031266339236
                    ]
                ],
                [
                    [
                        0.30458995435789293,
                        0.6954100456421071
                    ],
                    [
                        0.5313426511369163,
                        0.46865734886308374
                    ]
                ]
            ]
        },
        {
            "features": {
                "age": 0.38213405861245364,
                "sex": 1.0,
                "race": 0,
                "pre_existing": 0.0
            },
            "weights": {
                "age_weight_treat": -0.1586531533668618,
                "sex_weight_treat": 0.04003628599011551,
                "race_weights_treat": [
                    0.0021784146768769608,
                    -0.07305388174661465,
                    -0.14587009455473024,
                    -0.14862078661872788,
                    -0.16069644150438844
                ],
                "pre_existing_weight_treat": -0.2904611264041489,
                "age_weight_notreat": -0.07914769791682111,
                "sex_weight_notreat": 0.0592906818482927,
                "race_weights_notreat": [
                    -0.034914689426743264,
                    -0.06809967393383512,
                    -0.05103334049699652,
                    -0.03644984598024656,
                    -0.08505514273539291
                ],
                "pre_existing_weight_notreat": -0.19537924535108855
            },
            "transition_matrix": [
                [
                    [
                        0.48896904986486533,
                        0.5110309501351347
                    ],
                    [
                        0.5483808921601183,
                        0.4516191078398817
                    ]
                ],
                [
                    [
                        0.31397775233015557,
                        0.6860222476698444
                    ],
                    [
                        0.5203856748128087,
                        0.47961432518719127
                    ]
                ]
            ]
        },
        {
            "features": {
                "age": 0.1469025143687136,
                "sex": 1.0,
                "race": 0,
                "pre_existing": 0.0
            },
            "weights": {
                "age_weight_treat": -0.21684602867459515,
                "sex_weight_treat": 0.06863771720996013,
                "race_weights_treat": [
                    -0.010118218022577966,
                    -0.04574864656826051,
                    -0.14162119436866893,
                    -0.1741557220922662,
                    -0.22982791666584237
                ],
                "pre_existing_weight_treat": -0.2635024996258891,
                "age_weight_notreat": -0.14560062151418038,
                "sex_weight_notreat": 0.00249974862008397,
                "race_weights_notreat": [
                    2.6704839601918162e-05,
                    0.0026147262527230104,
                    -0.05209021910123061,
                    -0.07145219290954054,
                    -0.09263671843227675
                ],
                "pre_existing_weight_notreat": -0.1563082593620681
            },
            "transition_matrix": [
                [
                    [
                        0.49221628985501764,
                        0.5077837101449824
                    ],
                    [
                        0.545160926197757,
                        0.454839073802243
                    ]
                ],
                [
                    [
                        0.30435085387257077,
                        0.6956491461274292
                    ],
                    [
                        0.5316237987956778,
                        0.4683762012043222
                    ]
                ]
            ]
        },
        {
            "features": {
                "age": 0.17744055885827212,
                "sex": 0.0,
                "race": 3,
                "pre_existing": 0.0
            },
            "weights": {
                "age_weight_treat": -0.1531009424272552,
                "sex_weight_treat": 0.09340462026685742,
                "race_weights_treat": [
                    0.02725674645622221,
                    -0.0747516110394286,
                    -0.08639092214322325,
                    -0.1222129068881427,
                    -0.2459541621129823
                ],
                "pre_existing_weight_treat": -0.28163962886727884,
                "age_weight_notreat": -0.09785471072696889,
                "sex_weight_notreat": -7.939624605116449e-05,
                "race_weights_notreat": [
                    -0.03934079794996455,
                    0.02188676956845498,
                    -0.0951652056394898,
                    -0.08282559642512878,
                    -0.08419256499417804
                ],
                "pre_existing_weight_notreat": -0.18794584439014086
            },
            "transition_matrix": [
                [
                    [
                        0.5125446146008633,
                        0.4874553853991367
                    ],
                    [
                        0.5249320574335052,
                        0.47506794256649476
                    ]
                ],
                [
                    [
                        0.3428496604382545,
                        0.6571503395617455
                    ],
                    [
                        0.48765770183963447,
                        0.5123422981603656
                    ]
                ]
            ]
        },
        {
            "features": {
                "age": 0.5159464468687203,
                "sex": 1.0,
                "race": 3,
                "pre_existing": 1.0
            },
            "weights": {
                "age_weight_treat": -0.23259005358985665,
                "sex_weight_treat": 0.038488961430236945,
                "race_weights_treat": [
                    0.032347002724829654,
                    -0.0471003108460517,
                    -0.0725216948747048,
                    -0.16564561982641468,
                    -0.2162263436998205
                ],
                "pre_existing_weight_treat": -0.3443098035080873,
                "age_weight_notreat": -0.07452355341284604,
                "sex_weight_notreat": 0.0008513271423397674,
                "race_weights_notreat": [
                    -0.016995358113377317,
                    -0.027302549276440987,
                    -0.02151983708279262,
                    -0.06972032517740637,
                    -0.08530577742584868
                ],
                "pre_existing_weight_notreat": -0.12309086373967194
            },
            "transition_matrix": [
                [
                    [
                        0.5449805707564406,
                        0.45501942924355937
                    ],
                    [
                        0.4923980797348244,
                        0.5076019202651756
                    ]
                ],
                [
                    [
                        0.44805571334832883,
                        0.5519442866516712
                    ],
                    [
                        0.37954722287905945,
                        0.6204527771209405
                    ]
                ]
            ]
        },
        {
            "features": {
                "age": 0.2915850213953008,
                "sex": 0.0,
                "race": 3,
                "pre_existing": 0.0
            },
            "weights": {
                "age_weight_treat": -0.24440699719602615,
                "sex_weight_treat": 0.03514722504991002,
                "race_weights_treat": [
                    0.04522297751775045,
                    -0.051209495200563816,
                    -0.12133419231419619,
                    -0.16787632051858678,
                    -0.1934860117988895
                ],
                "pre_existing_weight_treat": -0.27606101880233624,
                "age_weight_notreat": -0.0707003894202695,
                "sex_weight_notreat": 0.0063296326183034,
                "race_weights_notreat": [
                    -0.03189701346088362,
                    0.02749663854330005,
                    -0.06419621426747685,
                    -0.0822756520833866,
                    -0.10861045135218367
                ],
                "pre_existing_weight_notreat": -0.117528913814228
            },
            "transition_matrix": [
                [
                    [
                        0.5132196250464747,
                        0.48678037495352533
                    ],
                    [
                        0.5242582330188826,
                        0.47574176698111736
                    ]
                ],
                [
                    [
                        0.3633488981871006,
                        0.6366511018128994
                    ],
                    [
                        0.46527057828247576,
                        0.5347294217175242
                    ]
                ]
            ]
        },
        {
            "features": {
                "age": 0.5137331502664209,
                "sex": 1.0,
                "race": 0,
                "pre_existing": 1.0
            },
            "weights": {
                "age_weight_treat": -0.24392286532823687,
                "sex_weight_treat": 0.03723355180997425,
                "race_weights_treat": [
                    -0.04318109905530492,
                    -0.0022104680310181812,
                    -0.12009762356922202,
                    -0.11693545191413729,
                    -0.17690975342732024
                ],
                "pre_existing_weight_treat": -0.26185818643284114,
                "age_weight_notreat": -0.14770978450229388,
                "sex_weight_notreat": 0.019926720275251924,
                "race_weights_notreat": [
                    -0.04448097576999023,
                    -0.06418721671135318,
                    -0.00019885409485670413,
                    -0.05476094056963145,
                    -0.09787929922806209
                ],
                "pre_existing_weight_notreat": -0.1455628928250018
            },
            "transition_matrix": [
                [
                    [
                        0.5488438739174176,
                        0.4511561260825824
                    ],
                    [
                        0.48850188716921467,
                        0.5114981128307854
                    ]
                ],
                [
                    [
                        0.3996597532156868,
                        0.6003402467843132
                    ],
                    [
                        0.42724094673811575,
                        0.5727590532618843
                    ]
                ]
            ]
        },
        {
            "features": {
                "age": 0.03864420200988547,
                "sex": 0.0,
                "race": 0,
                "pre_existing": 0.0
            },
            "weights": {
                "age_weight_treat": -0.17201662939592283,
                "sex_weight_treat": 0.01712318173104177,
                "race_weights_treat": [
                    -0.030831979862401417,
                    -0.04840829673497267,
                    -0.12293533762463778,
                    -0.17755521547911635,
                    -0.168121874677176
                ],
                "pre_existing_weight_treat": -0.25203842311450875,
                "age_weight_notreat": -0.13685861645248898,
                "sex_weight_notreat": 0.04565032812656479,
                "race_weights_notreat": [
                    -0.04902692734469219,
                    0.003468262529408978,
                    -0.033479257924903305,
                    -0.09019540691376213,
                    -0.1393622513210207
                ],
                "pre_existing_weight_notreat": -0.15000453548157888
            },
            "transition_matrix": [
                [
                    [
                        0.501078928166794,
                        0.498921071833206
                    ],
                    [
                        0.5363567901240448,
                        0.4636432098759552
                    ]
                ],
                [
                    [
                        0.31809927247831504,
                        0.681900727521685
                    ],
                    [
                        0.5156250543920379,
                        0.4843749456079621
                    ]
                ]
            ]
        },
        {
            "features": {
                "age": 0.5575270214926723,
                "sex": 0.0,
                "race": 1,
                "pre_existing": 1.0
            },
            "weights": {
                "age_weight_treat": -0.19351983847434887,
                "sex_weight_treat": 0.017847354350105572,
                "race_weights_treat": [
                    0.02847519939290459,
                    -0.06967983396029322,
                    -0.12211129476814134,
                    -0.18544656829746547,
                    -0.1669866789175758
                ],
                "pre_existing_weight_treat": -0.28992438673616977,
                "age_weight_notreat": -0.10586367185512402,
                "sex_weight_notreat": 0.06690415777282804,
                "race_weights_notreat": [
                    0.04812873983052343,
                    -0.009414749975771412,
                    -0.03486490471084294,
                    -0.04031552043451145,
                    -0.13984914828040315
                ],
                "pre_existing_weight_notreat": -0.1520552184121835
            },
            "transition_matrix": [
                [
                    [
                        0.5425200106375414,
                        0.45747998936245854
                    ],
                    [
                        0.49487722274922996,
                        0.50512277725077
                    ]
                ],
                [
                    [
                        0.4176316712149075,
                        0.5823683287850925
                    ],
                    [
                        0.40914603083926115,
                        0.5908539691607388
                    ]
                ]
            ]
        },
        {
            "features": {
                "age": 0.16343102745887172,
                "sex": 1.0,
                "race": 0,
                "pre_existing": 0.0
            },
            "weights": {
                "age_weight_treat": -0.23645534802985252,
                "sex_weight_treat": 0.0642286363852133,
                "race_weights_treat": [
                    0.017572356425303665,
                    -0.07803216988889375,
                    -0.14229016221388863,
                    -0.1759519669991076,
                    -0.23869059515384838
                ],
                "pre_existing_weight_treat": -0.33787247472661686,
                "age_weight_notreat": -0.08393141719780818,
                "sex_weight_notreat": -0.007987539022095511,
                "race_weights_notreat": [
                    0.022273269953848165,
                    0.022755323039232906,
                    -0.07341905473214416,
                    -0.08560186710920178,
                    -0.105567422916795
                ],
                "pre_existing_weight_notreat": -0.14962970166188494
            },
            "transition_matrix": [
                [
                    [
                        0.4873605100613623,
                        0.5126394899386377
                    ],
                    [
                        0.5499747642072859,
                        0.45002523579271414
                    ]
                ],
                [
                    [
                        0.3008703312572535,
                        0.6991296687427465
                    ],
                    [
                        0.5357282164200515,
                        0.46427178357994847
                    ]
                ]
            ]
        },
        {
            "features": {
                "age": 0.25666583970321677,
                "sex": 0.0,
                "race": 1,
                "pre_existing": 0.0
            },
            "weights": {
                "age_weight_treat": -0.2016894717595135,
                "sex_weight_treat": 0.09752201819126102,
                "race_weights_treat": [
                    -0.022850207924261137,
                    -0.04412270180707947,
                    -0.09588594127315936,
                    -0.18174803108354598,
                    -0.20049705462334105
                ],
                "pre_existing_weight_treat": -0.25679605906588915,
                "age_weight_notreat": -0.11351148824684282,
                "sex_weight_notreat": 0.038859273149633125,
                "race_weights_notreat": [
                    -0.011225121905991245,
                    0.005154750494017802,
                    -0.055740446159484626,
                    -0.11884967291784365,
                    -0.1391046837331112
                ],
                "pre_existing_weight_notreat": -0.12271724015923717
            },
            "transition_matrix": [
                [
                    [
                        0.49349530973536637,
                        0.5065046902646336
                    ],
                    [
                        0.543891790350494,
                        0.45610820964950605
                    ]
                ],
                [
                    [
                        0.33090150783677974,
                        0.6690984921632203
                    ],
                    [
                        0.5010276236942045,
                        0.4989723763057955
                    ]
                ]
            ]
        },
        {
            "features": {
                "age": 0.19856279758993584,
                "sex": 0.0,
                "race": 1,
                "pre_existing": 0.0
            },
            "weights": {
                "age_weight_treat": -0.18431175780151107,
                "sex_weight_treat": 0.007343924949589999,
                "race_weights_treat": [
                    -0.049823884884417274,
                    -0.06165116795576438,
                    -0.14947387695258044,
                    -0.17320518765121132,
                    -0.1509479320200368
                ],
                "pre_existing_weight_treat": -0.2789278340736089,
                "age_weight_notreat": -0.11005420420489131,
                "sex_weight_notreat": -0.02198406584652689,
                "race_weights_notreat": [
                    0.002447922352721711,
                    -0.06075144830053712,
                    -0.017110863282568695,
                    -0.09586299648724066,
                    -0.10789545506640734
                ],
                "pre_existing_weight_notreat": -0.14896977404535655
            },
            "transition_matrix": [
                [
                    [
                        0.5081503077554541,
                        0.49184969224454583
                    ],
                    [
                        0.5293153098600206,
                        0.4706846901399794
                    ]
                ],
                [
                    [
                        0.33142404016108096,
                        0.668575959838919
                    ],
                    [
                        0.5004378433346954,
                        0.49956215666530457
                    ]
                ]
            ]
        },
        {
            "features": {
                "age": 0.1857604565810124,
                "sex": 0.0,
                "race": 0,
                "pre_existing": 0.0
            },
            "weights": {
                "age_weight_treat": -0.156587360267182,
                "sex_weight_treat": 0.013086738112952488,
                "race_weights_treat": [
                    0.00939571868259488,
                    -0.014412110855702931,
                    -0.07586788611926547,
                    -0.16497507589523033,
                    -0.21086977378020016
                ],
                "pre_existing_weight_treat": -0.31345806164677764,
                "age_weight_notreat": -0.12148326842016656,
                "sex_weight_notreat": 0.02814746236173576,
                "race_weights_notreat": [
                    0.016143971716215053,
                    -0.048330062174924415,
                    -0.021979878990100274,
                    -0.08495988335366363,
                    -0.042781950590258785
                ],
                "pre_existing_weight_notreat": -0.16524445337502158
            },
            "transition_matrix": [
                [
                    [
                        0.48910742759181747,
                        0.5108925724081825
                    ],
                    [
                        0.5482437404511649,
                        0.45175625954883514
                    ]
                ],
                [
                    [
                        0.3142535133009159,
                        0.6857464866990841
                    ],
                    [
                        0.5200662114074962,
                        0.4799337885925038
                    ]
                ]
            ]
        },
        {
            "features": {
                "age": 0.3376246109188083,
                "sex": 0.0,
                "race": 1,
                "pre_existing": 0.0
            },
            "weights": {
                "age_weight_treat": -0.19568760490764625,
                "sex_weight_treat": 0.08175121453666233,
                "race_weights_treat": [
                    0.03201973274215697,
                    -0.09414009321396376,
                    -0.06563318895290014,
                    -0.11803181610902896,
                    -0.1612945301605904
                ],
                "pre_existing_weight_treat": -0.3212700085132173,
                "age_weight_notreat": -0.13781326795562404,
                "sex_weight_notreat": 0.03235180269349955,
                "race_weights_notreat": [
                    -0.04121312595495158,
                    -0.0690840323847222,
                    -0.06566022524744367,
                    -0.09944376468195594,
                    -0.08120480416048494
                ],
                "pre_existing_weight_notreat": -0.1354251260203772
            },
            "transition_matrix": [
                [
                    [
                        0.5163974135666054,
                        0.48360258643339454
                    ],
                    [
                        0.5210841936964848,
                        0.47891580630351516
                    ]
                ],
                [
                    [
                        0.3452937957584039,
                        0.6547062042415961
                    ],
                    [
                        0.48495228438066845,
                        0.5150477156193316
                    ]
                ]
            ]
        },
        {
            "features": {
                "age": 0.41061210814631577,
                "sex": 1.0,
                "race": 3,
                "pre_existing": 0.0
            },
            "weights": {
                "age_weight_treat": -0.2216457052030118,
                "sex_weight_treat": 0.07802345076678581,
                "race_weights_treat": [
                    -0.003883807141385108,
                    -0.0913201752393944,
                    -0.13922150341331002,
                    -0.1683604153560832,
                    -0.19901310546207984
                ],
                "pre_existing_weight_treat": -0.2871701223515385,
                "age_weight_notreat": -0.058026553113029636,
                "sex_weight_notreat": 0.025977585984222135,
                "race_weights_notreat": [
                    0.032679425930677075,
                    -0.06088252183569365,
                    -0.08368539676709433,
                    -0.04301942153315913,
                    -0.10866168050806158
                ],
                "pre_existing_weight_notreat": -0.1260270111468189
            },
            "transition_matrix": [
                [
                    [
                        0.4977170760769969,
                        0.5022829239230031
                    ],
                    [
                        0.5396992001612241,
                        0.4603007998387759
                    ]
                ],
                [
                    [
                        0.35008795279310656,
                        0.6499120472068934
                    ],
                    [
                        0.47967436361232224,
                        0.5203256363876778
                    ]
                ]
            ]
        },
        {
            "features": {
                "age": 0.3511927820505701,
                "sex": 0.0,
                "race": 0,
                "pre_existing": 0.0
            },
            "weights": {
                "age_weight_treat": -0.22813895809245632,
                "sex_weight_treat": 0.09802597289075887,
                "race_weights_treat": [
                    0.01579887739487007,
                    -0.04989570715186753,
                    -0.12336103135742599,
                    -0.11607062632531129,
                    -0.2027606237101237
                ],
                "pre_existing_weight_treat": -0.31525985670169804,
                "age_weight_notreat": -0.05765989051967327,
                "sex_weight_notreat": 0.0499787804867932,
                "race_weights_notreat": [
                    -0.019706477212177345,
                    -0.009298642166231056,
                    -0.08177427944409153,
                    -0.047547783431234655,
                    -0.1217811563971401
                ],
                "pre_existing_weight_notreat": -0.1269118630053397
            },
            "transition_matrix": [
                [
                    [
                        0.49748907475210746,
                        0.5025109252478925
                    ],
                    [
                        0.5399257611335774,
                        0.4600742388664226
                    ]
                ],
                [
                    [
                        0.323949941503512,
                        0.676050058496488
                    ],
                    [
                        0.5089185844621893,
                        0.4910814155378107
                    ]
                ]
            ]
        },
        {
            "features": {
                "age": 0.4553629451952221,
                "sex": 1.0,
                "race": 1,
                "pre_existing": 0.0
            },
            "weights": {
                "age_weight_treat": -0.17576439893336016,
                "sex_weight_treat": 0.02104653543525822,
                "race_weights_treat": [
                    0.0016736046586767403,
                    -0.06335253717017669,
                    -0.13388506883931128,
                    -0.1961591905732068,
                    -0.24477340557312263
                ],
                "pre_existing_weight_treat": -0.25590697750974606,
                "age_weight_notreat": -0.10203239463971744,
                "sex_weight_notreat": 0.0007615528152367587,
                "race_weights_notreat": [
                    -0.00906236501208589,
                    -0.062454615918982354,
                    -0.09471682386806035,
                    -0.1010197779452228,
                    -0.04921537343579284
                ],
                "pre_existing_weight_notreat": -0.16460806512302087
            },
            "transition_matrix": [
                [
                    [
                        0.5145346126189985,
                        0.4854653873810016
                    ],
                    [
                        0.5229451639992319,
                        0.47705483600076815
                    ]
                ],
                [
                    [
                        0.3367843461585791,
                        0.6632156538414209
                    ],
                    [
                        0.49441458332407057,
                        0.5055854166759295
                    ]
                ]
            ]
        },
        {
            "features": {
                "age": 0.4504950100634225,
                "sex": 1.0,
                "race": 0,
                "pre_existing": 0.0
            },
            "weights": {
                "age_weight_treat": -0.20025220868071555,
                "sex_weight_treat": 0.09347011734414674,
                "race_weights_treat": [
                    0.04563826303453504,
                    -0.025533747043088,
                    -0.09405925156927042,
                    -0.14206880292250967,
                    -0.18903658752533936
                ],
                "pre_existing_weight_treat": -0.3418202654948027,
                "age_weight_notreat": -0.14504826574747148,
                "sex_weight_notreat": -0.02431818426776405,
                "race_weights_notreat": [
                    -0.04028755447450997,
                    0.004901910308251076,
                    -0.07492442493635505,
                    -0.0708289010861424,
                    -0.07988027731722534
                ],
                "pre_existing_weight_notreat": -0.14490834596516478
            },
            "transition_matrix": [
                [
                    [
                        0.5199766750876024,
                        0.48002332491239763
                    ],
                    [
                        0.5175055274583279,
                        0.4824944725416721
                    ]
                ],
                [
                    [
                        0.29966454843734003,
                        0.70033545156266
                    ],
                    [
                        0.5371553209619947,
                        0.4628446790380053
                    ]
                ]
            ]
        },
        {
            "features": {
                "age": 0.33901853037206714,
                "sex": 1.0,
                "race": 0,
                "pre_existing": 0.0
            },
            "weights": {
                "age_weight_treat": -0.23336063758351436,
                "sex_weight_treat": 0.012373090710854906,
                "race_weights_treat": [
                    0.03212632510059167,
                    -0.0895833982480933,
                    -0.05451011095203816,
                    -0.14072672256568225,
                    -0.24155264954929095
                ],
                "pre_existing_weight_treat": -0.30444486025275036,
                "age_weight_notreat": -0.11430419368757475,
                "sex_weight_notreat": 0.04148168743321286,
                "race_weights_notreat": [
                    -0.012461414941477678,
                    0.025901658460178546,
                    -0.001585464360948724,
                    -0.08640173251270555,
                    -0.1231457789829341
                ],
                "pre_existing_weight_notreat": -0.17363168103233673
            },
            "transition_matrix": [
                [
                    [
                        0.4899341020142879,
                        0.5100658979857121
                    ],
                    [
                        0.5474242721050229,
                        0.45257572789497713
                    ]
                ],
                [
                    [
                        0.3174780868838787,
                        0.6825219131161213
                    ],
                    [
                        0.516340637496788,
                        0.48365936250321195
                    ]
                ]
            ]
        }
    ]
}